#ifndef COEFFS_H
#define COEFFS_H

const float nn_weights_ih[32][16] = {{-1.124262f, -0.579067f, -0.215809f, -0.002363f, 0.097854f, 0.017211f, -0.463251f, -0.194414f, -0.149502f, 0.344395f, 0.010921f, -0.317070f, -0.543759f, 0.055121f, 0.504602f, 0.211805f},{0.086905f, 0.376518f, 0.033230f, 0.505165f, 0.536626f, 0.953165f, 0.911631f, 0.512211f, 0.033423f, -0.232235f, -0.530579f, -0.184028f, -0.508252f, -0.709523f, -0.631249f, -0.747222f},{0.076612f, -0.109548f, -0.231896f, -0.386463f, -0.149133f, 0.519823f, 0.230233f, 0.468571f, 0.178972f, 0.349184f, 0.569353f, 0.531215f, 0.605275f, -0.067830f, -0.300777f, -0.729365f},{0.240187f, -0.041202f, -0.439057f, -0.133947f, -0.477788f, -0.393883f, -0.967480f, -0.870023f, -0.999180f, -0.339933f, 0.139898f, 0.503253f, 0.379608f, 0.002978f, -0.020119f, -0.463362f},{-0.326263f, -0.244115f, -0.106619f, -0.470164f, 0.040077f, 0.007389f, 0.485541f, 0.695579f, 0.271445f, 0.103401f, 0.086530f, -0.133059f, -0.333210f, -0.822624f, -0.829669f, -1.285056f},{-0.624467f, -1.035798f, -0.826320f, -0.254194f, 0.133272f, 0.237504f, -0.256232f, -0.218530f, -0.230729f, 0.124091f, 0.658262f, 0.662524f, 0.441219f, 0.338887f, -0.184620f, 0.080117f},{0.427166f, 0.615962f, 0.778700f, 0.614048f, 0.177407f, 0.457210f, 0.391680f, -0.100227f, -0.515132f, -0.963543f, -0.651635f, -0.071944f, 0.183831f, -0.107637f, 0.140889f, 0.682473f},{-0.635525f, -0.485908f, -0.761383f, -0.297539f, -0.050097f, 0.193251f, 0.801828f, 0.812339f, 1.050034f, 0.622146f, 0.087006f, -0.163523f, -0.481015f, -0.480339f, -0.612167f, -0.724645f},{0.789986f, -0.437520f, -0.765207f, -0.038876f, 0.661194f, 0.415857f, -0.292951f, -0.637071f, -0.175709f, 0.490532f, 0.263102f, 0.017971f, 0.260430f, 0.312402f, 0.039285f, -0.719260f},{2.623145f, -0.030861f, 0.435083f, 0.154734f, -0.885698f, -1.847109f, -1.247309f, -1.285857f, -0.640345f, -0.085660f, 0.848723f, 1.316521f, 0.569606f, 0.859466f, 0.969153f, -1.028960f},{0.180390f, -0.060826f, -0.070475f, -0.463917f, 0.173993f, 0.181004f, 0.189781f, -0.231458f, -0.595338f, -0.493890f, -0.370478f, 0.232645f, -0.022959f, -0.224545f, -0.917129f, -0.931189f},{-1.217613f, -0.720439f, -0.299106f, 0.141279f, 0.699904f, 0.692520f, 0.421884f, -0.288971f, -0.000762f, 0.212974f, -0.089190f, -0.463234f, -0.444030f, -0.542660f, 0.053741f, 1.057191f},{0.704426f, 0.339855f, 0.209241f, 0.285597f, 0.609236f, 0.179807f, -0.271715f, -0.052728f, -0.040842f, 0.038794f, -0.158135f, -0.656297f, -0.704765f, -0.730481f, -0.722179f, -0.543299f},{-0.043453f, -0.080330f, 0.010767f, -0.023920f, 0.212073f, -0.021266f, 0.076639f, -0.219627f, 0.070578f, -0.058190f, -0.226819f, -0.017096f, 0.096449f, 0.006118f, 0.138986f, 0.157479f},{-0.256353f, 0.070731f, -0.143500f, -0.128347f, -0.082873f, 0.182744f, 0.132823f, 0.146764f, 0.202599f, 0.346978f, -0.038804f, 0.068445f, -0.181466f, -0.199476f, -0.026790f, -0.520236f},{0.378139f, -0.250891f, -0.617236f, -0.522889f, 0.298944f, 0.467906f, 0.283450f, -0.253626f, -0.732034f, -0.037740f, 0.429462f, 0.838242f, 0.672626f, 0.000052f, -0.574100f, -0.136501f},{0.043698f, -0.291888f, -0.078746f, -0.212377f, -0.000097f, 0.184518f, 0.282545f, -0.059003f, 0.077751f, 0.553806f, 0.237701f, 0.054050f, -0.106295f, -0.445789f, -0.543553f, -0.090824f},{-0.658841f, -0.558329f, -0.510264f, -0.555572f, 0.031368f, 0.239862f, 0.867768f, 0.862627f, 1.159459f, 0.633277f, 0.053999f, -0.117219f, -0.451207f, -0.468734f, -0.635347f, -0.721119f},{1.166358f, 1.079364f, 0.782351f, 0.429674f, -0.372139f, -0.482587f, -0.578220f, -0.224243f, -0.271627f, -0.235681f, -0.264957f, -0.447523f, -0.164625f, -0.179719f, -0.329175f, -0.370350f},{0.652214f, 0.547118f, 0.225909f, 0.205735f, 0.580817f, 0.602501f, 0.194711f, 0.343161f, -0.122537f, -0.195922f, -0.114299f, -0.047102f, -0.256199f, -0.076973f, -0.838397f, -0.896157f},{-0.820008f, -0.976293f, -0.121774f, 0.181800f, 0.478874f, 0.646926f, 0.968401f, 0.332780f, -0.160308f, -0.162668f, 0.171635f, -0.627567f, -0.818558f, -0.233678f, 0.222300f, 0.636983f},{0.638864f, 0.856365f, 0.470309f, -0.164277f, -0.337818f, -0.020089f, 0.556003f, 0.488595f, 0.217225f, -0.185702f, -0.256600f, -0.006988f, 0.429449f, -0.047057f, -0.685390f, -0.938353f},{-0.739473f, -0.549792f, -0.684712f, -0.597418f, -0.107695f, 0.526800f, 0.691320f, 1.013604f, 1.399599f, 0.739045f, 0.172350f, -0.110203f, -0.539135f, -0.748803f, -0.573813f, -0.948461f},{-0.112002f, -0.531241f, -0.558819f, -0.181287f, 0.436512f, 0.226631f, -0.410193f, -0.621528f, -0.387963f, -0.314493f, 0.191770f, 0.103156f, -0.057507f, 0.061004f, -0.333487f, -0.387147f},{-0.133429f, -0.088305f, -0.165173f, -0.190626f, 0.245894f, 0.064713f, 0.195381f, 0.307909f, -0.071352f, 0.172900f, 0.209995f, 0.455880f, 0.133076f, -0.355374f, -0.496438f, -0.556460f},{-0.118921f, -0.473428f, -0.333516f, 0.053125f, 0.108044f, -0.337341f, -0.606133f, -0.947423f, -0.808922f, -0.335943f, 0.275484f, -0.160526f, 0.015312f, -0.334282f, 0.116979f, -0.223276f},{-0.677888f, -0.451414f, -0.590283f, -0.508469f, 0.005927f, 0.453780f, 0.647868f, 0.936962f, 1.279140f, 0.531804f, 0.150177f, -0.014466f, -0.513136f, -0.507295f, -0.615038f, -0.796814f},{0.358826f, -0.102659f, -0.052475f, -0.018024f, 0.087115f, -0.276204f, -0.236063f, -0.018631f, 0.009408f, -0.151492f, 0.037270f, 0.161473f, 0.076725f, 0.047558f, 0.289328f, -0.111756f},{0.464851f, 0.303751f, -0.251429f, -0.724109f, -0.913590f, -0.343513f, 0.214695f, 0.251753f, 0.373147f, 0.206353f, 0.439299f, 0.844600f, 0.832883f, 0.494001f, -0.418309f, -0.815639f},{0.477724f, 0.274790f, 0.277194f, -0.148421f, 0.198549f, 0.357422f, 0.342955f, -0.126407f, 0.136466f, -0.289000f, -0.029195f, -0.152614f, -0.387385f, -0.623703f, -0.984332f, -0.993515f},{-0.540405f, 0.036905f, -0.062369f, -0.030599f, -0.037487f, -0.023643f, 0.346157f, 0.157182f, 0.107138f, 0.306918f, -0.152116f, 0.154099f, -0.365201f, -0.069953f, -0.247988f, -0.330002f},{-0.530747f, 0.569713f, 0.671268f, 1.016866f, 1.222356f, 0.637582f, -0.095202f, -0.641804f, -1.071950f, -1.796731f, -1.923206f, -0.688961f, 0.460026f, 0.050982f, 0.059120f, 2.473117f},};

const float nn_bias_h[32] = {-0.364685f, 0.002944f, -0.342779f, 0.001518f, 0.001735f, -0.224691f, 0.003013f, -0.960689f, -0.007550f, -1.407071f, -0.427858f, -0.006930f, -0.339898f, -0.281948f, -0.326824f, -0.258824f, -0.402612f, -1.045612f, 0.000165f, 0.193151f, -0.717976f, -0.352777f, -1.090237f, 0.186771f, -0.174287f, -0.149392f, -0.989938f, -0.389511f, -0.007237f, 0.457216f, -0.393615f, -1.301798f};

const float nn_weights_ho[32] = {-0.314337f, 0.766351f, -0.257495f, 0.792236f, 0.540004f, -0.318892f, 0.211352f, 7.362604f, 0.583450f, 9.574815f, -0.310486f, 0.715435f, -0.438742f, 0.095649f, 0.004752f, -0.162976f, -0.018614f, 8.381868f, 0.485375f, -0.314683f, -1.394681f, -0.538452f, 9.178400f, -0.244958f, -0.009041f, -0.368993f, 8.122657f, 0.005625f, 0.444680f, -0.361529f, 0.323583f, 10.061121f};

const float nn_bias_out = -0.232933f;

#endif